<?xml version="1.0"?>
<opencv_storage>
<stage1>
  <maxWeakCount>5</maxWeakCount>
  <stageThreshold>-1.4407590627670288e+00</stageThreshold>
  <weakClassifiers>
    <_>
      <internalNodes>
        0 -1 13723 -2.6235915720462799e-02</internalNodes>
      <leafValues>
        7.7777779102325439e-01 -6.7972743511199951e-01</leafValues></_>
    <_>
      <internalNodes>
        0 -1 51734 -4.3153014034032822e-02</internalNodes>
      <leafValues>
        6.3399869203567505e-01 -7.1376341581344604e-01</leafValues></_>
    <_>
      <internalNodes>
        0 -1 151274 3.6303121596574783e-03</internalNodes>
      <leafValues>
        -7.7153813838958740e-01 5.3099602460861206e-01</leafValues></_>
    <_>
      <internalNodes>
        0 -1 61319 1.2008144985884428e-03</internalNodes>
      <leafValues>
        -9.5123559236526489e-01 4.0711897611618042e-01</leafValues></_>
    <_>
      <internalNodes>
        0 -1 27786 8.1758841406553984e-04</internalNodes>
      <leafValues>
        -9.4298315048217773e-01 3.1715092062950134e-01</leafValues></_></weakClassifiers></stage1>
</opencv_storage>
