<?xml version="1.0"?>
<opencv_storage>
<stage5>
  <maxWeakCount>8</maxWeakCount>
  <stageThreshold>-1.1079560518264771e+00</stageThreshold>
  <weakClassifiers>
    <_>
      <internalNodes>
        0 -1 121739 1.4467418193817139e-02</internalNodes>
      <leafValues>
        -7.9166668653488159e-01 3.1691649556159973e-01</leafValues></_>
    <_>
      <internalNodes>
        0 -1 70427 6.1207960243336856e-05</internalNodes>
      <leafValues>
        -9.2308956384658813e-01 2.3196412622928619e-01</leafValues></_>
    <_>
      <internalNodes>
        0 -1 97887 2.8069030493497849e-02</internalNodes>
      <leafValues>
        -8.1790673732757568e-01 2.9364517331123352e-01</leafValues></_>
    <_>
      <internalNodes>
        0 -1 155354 -1.0307854041457176e-02</internalNodes>
      <leafValues>
        3.7953117489814758e-01 -6.9687473773956299e-01</leafValues></_>
    <_>
      <internalNodes>
        0 -1 94221 1.1225035996176302e-04</internalNodes>
      <leafValues>
        -7.2872066497802734e-01 3.4791389107704163e-01</leafValues></_>
    <_>
      <internalNodes>
        0 -1 43007 5.6620489340275526e-04</internalNodes>
      <leafValues>
        -9.1936355829238892e-01 3.0266961455345154e-01</leafValues></_>
    <_>
      <internalNodes>
        0 -1 72342 8.7763369083404541e-04</internalNodes>
      <leafValues>
        -9.1096735000610352e-01 2.0755551755428314e-01</leafValues></_>
    <_>
      <internalNodes>
        0 -1 52148 1.3634033501148224e-02</internalNodes>
      <leafValues>
        2.6556929945945740e-01 -9.5131027698516846e-01</leafValues></_></weakClassifiers></stage5>
</opencv_storage>
