<?xml version="1.0"?>
<opencv_storage>
<stage9>
  <maxWeakCount>10</maxWeakCount>
  <stageThreshold>-1.1434397697448730e+00</stageThreshold>
  <weakClassifiers>
    <_>
      <internalNodes>
        0 -1 103214 6.1330269090831280e-05</internalNodes>
      <leafValues>
        -8.4375000000000000e-01 1.7117117345333099e-01</leafValues></_>
    <_>
      <internalNodes>
        0 -1 139361 -5.4108486510813236e-03</internalNodes>
      <leafValues>
        1.9679181277751923e-01 -8.7317979335784912e-01</leafValues></_>
    <_>
      <internalNodes>
        0 -1 2148 -9.8438526038080454e-04</internalNodes>
      <leafValues>
        3.1133681535720825e-01 -6.4797604084014893e-01</leafValues></_>
    <_>
      <internalNodes>
        0 -1 2141 -3.1092902645468712e-02</internalNodes>
      <leafValues>
        -8.8922113180160522e-01 2.6151978969573975e-01</leafValues></_>
    <_>
      <internalNodes>
        0 -1 2151 -3.9173398166894913e-02</internalNodes>
      <leafValues>
        2.5339838862419128e-01 -9.5776510238647461e-01</leafValues></_>
    <_>
      <internalNodes>
        0 -1 38000 7.0562993641942739e-04</internalNodes>
      <leafValues>
        -8.3016479015350342e-01 1.8383285403251648e-01</leafValues></_>
    <_>
      <internalNodes>
        0 -1 98707 -3.6858115345239639e-03</internalNodes>
      <leafValues>
        -9.6028566360473633e-01 1.5669938921928406e-01</leafValues></_>
    <_>
      <internalNodes>
        0 -1 48971 3.2906308770179749e-02</internalNodes>
      <leafValues>
        -5.7356321811676025e-01 2.9558920860290527e-01</leafValues></_>
    <_>
      <internalNodes>
        0 -1 63398 2.8148689866065979e-01</internalNodes>
      <leafValues>
        -3.2190367579460144e-01 7.1358406543731689e-01</leafValues></_>
    <_>
      <internalNodes>
        0 -1 133841 -1.1682473123073578e-03</internalNodes>
      <leafValues>
        5.8375817537307739e-01 -5.0609606504440308e-01</leafValues></_></weakClassifiers></stage9>
</opencv_storage>
